GraphicEQ: 20 -8.4; 21 -8.6; 22 -8.8; 23 -9.1; 24 -9.3; 26 -9.8; 27 -10.0; 29 -10.4; 30 -10.6; 32 -10.9; 34 -11.2; 36 -11.4; 38 -11.6; 40 -11.8; 43 -12.0; 45 -12.1; 48 -12.1; 50 -12.2; 53 -12.2; 56 -12.3; 59 -12.3; 63 -12.3; 66 -12.3; 70 -12.4; 74 -12.4; 78 -12.4; 83 -12.4; 87 -12.3; 92 -12.1; 97 -11.9; 103 -11.6; 109 -11.3; 115 -11.0; 121 -10.7; 128 -10.5; 136 -10.2; 143 -10.0; 151 -9.7; 160 -9.4; 169 -9.0; 178 -8.7; 188 -8.4; 199 -8.1; 210 -7.8; 222 -7.4; 235 -6.9; 248 -6.3; 262 -5.9; 277 -5.6; 292 -5.4; 309 -5.1; 326 -5.1; 345 -5.5; 364 -6.0; 385 -6.6; 406 -7.1; 429 -7.7; 453 -8.3; 479 -8.9; 506 -9.5; 534 -9.9; 565 -10.2; 596 -10.3; 630 -10.2; 665 -10.1; 703 -9.9; 743 -9.7; 784 -9.5; 829 -9.3; 875 -9.1; 924 -9.0; 977 -8.9; 1032 -8.8; 1090 -8.7; 1151 -8.4; 1216 -7.8; 1284 -7.2; 1357 -6.5; 1433 -5.9; 1514 -5.4; 1599 -4.8; 1689 -4.1; 1784 -3.3; 1885 -2.7; 1991 -2.1; 2103 -1.8; 2221 -1.7; 2347 -1.6; 2479 -2.1; 2618 -2.6; 2766 -3.0; 2921 -3.4; 3086 -3.7; 3260 -3.6; 3443 -2.8; 3637 -2.0; 3842 -1.3; 4058 -0.4; 4287 -0.2; 4528 -0.4; 4783 -1.6; 5052 -3.0; 5337 -4.7; 5637 -6.0; 5955 -6.7; 6290 -7.4; 6644 -8.0; 7018 -7.1; 7414 -5.4; 7831 -4.7; 8272 -4.3; 8738 -3.9; 9230 -3.5; 9749 -2.9; 10298 -2.6; 10878 -2.7; 11490 -2.9; 12137 -3.2; 12821 -3.5; 13543 -4.0; 14305 -4.5; 15110 -5.2; 15961 -5.9; 16860 -6.7; 17809 -7.6; 18812 -8.6; 19871 -9.6