frequency,raw
20.00,1.77
20.20,1.82
20.40,1.86
20.61,1.93
20.81,1.98
21.02,2.03
21.23,2.09
21.44,2.14
21.66,2.19
21.87,2.24
22.09,2.30
22.31,2.34
22.54,2.40
22.76,2.45
22.99,2.50
23.22,2.54
23.45,2.60
23.69,2.65
23.92,2.70
24.16,2.76
24.40,2.81
24.65,2.87
24.89,2.93
25.14,2.99
25.39,3.04
25.65,3.09
25.91,3.14
26.16,3.20
26.43,3.25
26.69,3.30
26.96,3.35
27.23,3.40
27.50,3.44
27.77,3.49
28.05,3.55
28.33,3.60
28.62,3.65
28.90,3.69
29.19,3.73
29.48,3.78
29.78,3.83
30.08,3.88
30.38,3.91
30.68,3.96
30.99,4.01
31.30,4.05
31.61,4.09
31.93,4.12
32.24,4.14
32.57,4.18
32.89,4.21
33.22,4.25
33.55,4.28
33.89,4.31
34.23,4.33
34.57,4.37
34.92,4.40
35.27,4.43
35.62,4.46
35.97,4.48
36.33,4.51
36.70,4.53
37.06,4.56
37.43,4.59
37.81,4.61
38.19,4.63
38.57,4.65
38.95,4.68
39.34,4.69
39.74,4.71
40.14,4.73
40.54,4.73
40.94,4.75
41.35,4.76
41.76,4.77
42.18,4.78
42.60,4.79
43.03,4.78
43.46,4.79
43.90,4.80
44.33,4.80
44.78,4.79
45.23,4.80
45.68,4.80
46.13,4.80
46.60,4.79
47.06,4.79
47.53,4.78
48.01,4.77
48.49,4.76
48.97,4.75
49.46,4.74
49.96,4.72
50.46,4.72
50.96,4.71
51.47,4.69
51.99,4.68
52.51,4.66
53.03,4.65
53.56,4.65
54.10,4.64
54.64,4.61
55.18,4.60
55.74,4.58
56.29,4.56
56.86,4.55
57.42,4.54
58.00,4.52
58.58,4.49
59.16,4.48
59.76,4.46
60.35,4.45
60.96,4.42
61.57,4.41
62.18,4.40
62.80,4.39
63.43,4.37
64.07,4.36
64.71,4.35
65.35,4.33
66.01,4.32
66.67,4.31
67.33,4.31
68.01,4.29
68.69,4.29
69.37,4.27
70.07,4.26
70.77,4.25
71.48,4.24
72.19,4.23
72.91,4.22
73.64,4.20
74.38,4.18
75.12,4.17
75.87,4.16
76.63,4.13
77.40,4.11
78.17,4.10
78.95,4.08
79.74,4.05
80.54,4.03
81.35,4.01
82.16,3.98
82.98,3.94
83.81,3.92
84.65,3.87
85.50,3.83
86.35,3.78
87.22,3.73
88.09,3.68
88.97,3.63
89.86,3.57
90.76,3.51
91.66,3.44
92.58,3.38
93.51,3.31
94.44,3.25
95.39,3.17
96.34,3.09
97.30,3.02
98.28,2.95
99.26,2.87
100.25,2.79
101.25,2.71
102.27,2.63
103.29,2.55
104.32,2.47
105.37,2.39
106.42,2.29
107.48,2.22
108.56,2.14
109.64,2.05
110.74,1.96
111.85,1.88
112.97,1.79
114.10,1.70
115.24,1.62
116.39,1.53
117.55,1.44
118.73,1.36
119.92,1.27
121.12,1.18
122.33,1.10
123.55,1.02
124.79,0.93
126.03,0.86
127.29,0.77
128.57,0.70
129.85,0.63
131.15,0.54
132.46,0.48
133.79,0.41
135.12,0.33
136.48,0.26
137.84,0.18
139.22,0.11
140.61,0.05
142.02,-0.02
143.44,-0.10
144.87,-0.16
146.32,-0.23
147.78,-0.31
149.26,-0.38
150.75,-0.46
152.26,-0.54
153.78,-0.62
155.32,-0.70
156.88,-0.79
158.44,-0.89
160.03,-0.98
161.63,-1.08
163.24,-1.17
164.88,-1.26
166.53,-1.37
168.19,-1.47
169.87,-1.58
171.57,-1.67
173.29,-1.78
175.02,-1.86
176.77,-1.96
178.54,-2.05
180.32,-2.13
182.13,-2.22
183.95,-2.30
185.79,-2.37
187.65,-2.45
189.52,-2.54
191.42,-2.60
193.33,-2.67
195.27,-2.75
197.22,-2.82
199.19,-2.89
201.18,-2.95
203.19,-3.03
205.23,-3.11
207.28,-3.17
209.35,-3.24
211.44,-3.31
213.56,-3.38
215.69,-3.47
217.85,-3.54
220.03,-3.63
222.23,-3.70
224.45,-3.79
226.70,-3.89
228.96,-3.97
231.25,-4.07
233.57,-4.16
235.90,-4.26
238.26,-4.34
240.64,-4.43
243.05,-4.51
245.48,-4.60
247.93,-4.67
250.41,-4.73
252.92,-4.80
255.45,-4.87
258.00,-4.93
260.58,-4.97
263.19,-5.02
265.82,-5.06
268.48,-5.11
271.16,-5.14
273.87,-5.18
276.61,-5.20
279.38,-5.22
282.17,-5.24
284.99,-5.25
287.84,-5.28
290.72,-5.28
293.63,-5.30
296.57,-5.32
299.53,-5.34
302.53,-5.35
305.55,-5.38
308.61,-5.39
311.69,-5.41
314.81,-5.41
317.96,-5.41
321.14,-5.39
324.35,-5.38
327.59,-5.32
330.87,-5.26
334.18,-5.18
337.52,-5.08
340.90,-4.98
344.30,-4.86
347.75,-4.74
351.23,-4.61
354.74,-4.48
358.28,-4.36
361.87,-4.24
365.49,-4.12
369.14,-4.00
372.83,-3.88
376.56,-3.75
380.33,-3.66
384.13,-3.54
387.97,-3.43
391.85,-3.32
395.77,-3.21
399.73,-3.10
403.72,-2.98
407.76,-2.88
411.84,-2.77
415.96,-2.64
420.12,-2.52
424.32,-2.41
428.56,-2.28
432.85,-2.16
437.18,-2.03
441.55,-1.90
445.96,-1.78
450.42,-1.64
454.93,-1.51
459.48,-1.37
464.07,-1.24
468.71,-1.11
473.40,-0.98
478.13,-0.85
482.91,-0.73
487.74,-0.62
492.62,-0.49
497.55,-0.38
502.52,-0.28
507.55,-0.18
512.62,-0.08
517.75,0.01
522.93,0.10
528.16,0.18
533.44,0.27
538.77,0.34
544.16,0.40
549.60,0.47
555.10,0.53
560.65,0.59
566.25,0.64
571.92,0.70
577.64,0.73
583.41,0.77
589.25,0.81
595.14,0.82
601.09,0.85
607.10,0.87
613.17,0.88
619.30,0.89
625.50,0.91
631.75,0.90
638.07,0.90
644.45,0.90
650.89,0.90
657.40,0.89
663.98,0.88
670.62,0.88
677.32,0.87
684.10,0.84
690.94,0.83
697.85,0.81
704.83,0.79
711.87,0.76
718.99,0.74
726.18,0.70
733.44,0.67
740.78,0.64
748.19,0.60
755.67,0.58
763.23,0.54
770.86,0.51
778.57,0.47
786.35,0.43
794.22,0.40
802.16,0.36
810.18,0.32
818.28,0.29
826.46,0.25
834.73,0.23
843.08,0.21
851.51,0.18
860.02,0.15
868.62,0.14
877.31,0.11
886.08,0.09
894.94,0.08
903.89,0.06
912.93,0.05
922.06,0.04
931.28,0.02
940.59,0.02
950.00,0.01
959.50,0.00
969.09,-0.01
978.78,-0.01
988.57,-0.01
998.46,-0.01
1008.44,0.00
1018.53,0.00
1028.71,0.00
1039.00,0.02
1049.39,0.02
1059.88,0.02
1070.48,0.02
1081.19,0.00
1092.00,0.00
1102.92,-0.02
1113.95,-0.03
1125.09,-0.05
1136.34,-0.08
1147.70,-0.11
1159.18,-0.16
1170.77,-0.20
1182.48,-0.24
1194.30,-0.28
1206.25,-0.33
1218.31,-0.38
1230.49,-0.44
1242.80,-0.50
1255.22,-0.55
1267.78,-0.61
1280.45,-0.68
1293.26,-0.74
1306.19,-0.80
1319.25,-0.86
1332.45,-0.92
1345.77,-0.98
1359.23,-1.03
1372.82,-1.08
1386.55,-1.12
1400.41,-1.16
1414.42,-1.20
1428.56,-1.23
1442.85,-1.26
1457.28,-1.28
1471.85,-1.30
1486.57,-1.32
1501.43,-1.32
1516.45,-1.33
1531.61,-1.35
1546.93,-1.35
1562.40,-1.36
1578.02,-1.37
1593.80,-1.37
1609.74,-1.39
1625.84,-1.41
1642.10,-1.44
1658.52,-1.48
1675.10,-1.52
1691.85,-1.55
1708.77,-1.59
1725.86,-1.62
1743.12,-1.66
1760.55,-1.68
1778.15,-1.70
1795.94,-1.72
1813.90,-1.71
1832.03,-1.71
1850.36,-1.70
1868.86,-1.68
1887.55,-1.67
1906.42,-1.65
1925.49,-1.62
1944.74,-1.59
1964.19,-1.57
1983.83,-1.54
2003.67,-1.50
2023.71,-1.46
2043.94,-1.41
2064.38,-1.36
2085.03,-1.30
2105.88,-1.24
2126.94,-1.16
2148.20,-1.08
2169.69,-1.00
2191.38,-0.91
2213.30,-0.82
2235.43,-0.75
2257.78,-0.66
2280.36,-0.58
2303.17,-0.51
2326.20,-0.43
2349.46,-0.36
2372.95,-0.24
2396.68,-0.11
2420.65,0.03
2444.86,0.22
2469.31,0.40
2494.00,0.60
2518.94,0.79
2544.13,0.98
2569.57,1.15
2595.27,1.30
2621.22,1.43
2647.43,1.54
2673.90,1.64
2700.64,1.76
2727.65,1.88
2754.93,2.00
2782.48,2.12
2810.30,2.24
2838.40,2.36
2866.79,2.49
2895.46,2.60
2924.41,2.72
2953.65,2.83
2983.19,2.91
3013.02,2.99
3043.15,3.08
3073.58,3.13
3104.32,3.19
3135.36,3.23
3166.72,3.25
3198.38,3.27
3230.37,3.26
3262.67,3.21
3295.30,3.12
3328.25,3.02
3361.53,2.89
3395.15,2.75
3429.10,2.60
3463.39,2.45
3498.03,2.30
3533.01,2.16
3568.34,2.03
3604.02,1.89
3640.06,1.76
3676.46,1.61
3713.22,1.45
3750.36,1.29
3787.86,1.11
3825.74,0.92
3864.00,0.74
3902.64,0.54
3941.66,0.31
3981.08,0.08
4020.89,-0.17
4061.10,-0.44
4101.71,-0.74
4142.73,-1.05
4184.15,-1.38
4226.00,-1.75
4268.26,-2.13
4310.94,-2.53
4354.05,-2.96
4397.59,-3.42
4441.56,-3.88
4485.98,-4.30
4530.84,-4.67
4576.15,-4.99
4621.91,-5.23
4668.13,-5.40
4714.81,-5.51
4761.96,-5.55
4809.58,-5.44
4857.67,-5.21
4906.25,-4.86
4955.31,-4.25
5004.87,-3.51
5054.91,-2.68
5105.46,-1.74
5156.52,-0.79
5208.08,0.12
5260.16,0.93
5312.77,1.54
5365.89,2.01
5419.55,2.30
5473.75,2.44
5528.49,2.52
5583.77,2.54
5639.61,2.58
5696.00,2.65
5752.96,2.69
5810.49,2.76
5868.60,2.81
5927.28,2.85
5986.56,2.89
6046.42,2.92
6106.89,2.97
6167.96,3.02
6229.64,3.11
6291.93,3.24
6354.85,3.39
6418.40,3.57
6482.58,3.80
6547.41,4.04
6612.88,4.31
6679.01,4.59
6745.80,4.87
6813.26,5.15
6881.39,5.39
6950.21,5.59
7019.71,5.73
7089.91,5.80
7160.81,5.81
7232.41,5.74
7304.74,5.55
7377.79,5.27
7451.56,4.93
7526.08,4.47
7601.34,3.96
7677.35,3.37
7754.13,2.73
7831.67,2.03
7909.98,1.28
7989.08,0.50
8068.98,-0.26
8149.67,-1.05
8231.16,-1.77
8313.47,-2.42
8396.61,-3.03
8480.57,-3.58
8565.38,-4.13
8651.03,-4.65
8737.54,-5.16
8824.92,-5.76
8913.17,-6.40
9002.30,-7.05
9092.32,-7.80
9183.25,-8.57
9275.08,-9.32
9367.83,-10.07
9461.51,-10.73
9556.12,-11.33
9651.68,-11.81
9748.20,-12.16
9845.68,-12.39
9944.14,-12.54
10043.58,-12.54
10144.02,-12.48
10245.46,-12.41
10347.91,-12.33
10451.39,-12.31
10555.91,-12.35
10661.46,-12.45
10768.08,-12.57
10875.76,-12.74
10984.52,-12.91
11094.36,-13.05
11205.31,-13.17
11317.36,-13.24
11430.53,-13.29
11544.84,-13.33
11660.29,-13.36
11776.89,-13.33
11894.66,-13.24
12013.60,-13.07
12133.74,-12.79
12255.08,-12.38
12377.63,-11.86
12501.41,-11.22
12626.42,-10.52
12752.68,-9.83
12880.21,-9.18
13009.01,-8.66
13139.10,-8.27
13270.49,-8.07
13403.20,-8.03
13537.23,-8.15
13672.60,-8.43
13809.33,-8.92
13947.42,-9.52
14086.90,-10.23
14227.77,-10.96
14370.04,-11.69
14513.74,-12.38
14658.88,-13.01
14805.47,-13.41
14953.52,-13.59
15103.06,-13.47
15254.09,-13.01
15406.63,-12.32
15560.70,-11.44
15716.30,-10.49
15873.47,-9.61
16032.20,-8.82
16192.52,-8.34
16354.45,-8.11
16517.99,-8.15
16683.17,-8.59
16850.01,-9.27
17018.51,-10.09
17188.69,-11.03
17360.58,-11.97
17534.18,-12.95
17709.53,-13.87
17886.62,-14.67
18065.49,-15.25
18246.14,-15.79
18428.60,-16.30
18612.89,-16.81
18799.02,-17.34
18987.01,-17.95
19176.88,-18.64
19368.65,-19.37
19562.33,-20.20
19757.96,-20.98
19955.54,-21.72
