GraphicEQ: 20 -7.9; 21 -8.2; 22 -8.4; 23 -8.7; 24 -8.9; 26 -9.3; 27 -9.5; 29 -9.8; 30 -10.0; 32 -10.3; 34 -10.5; 36 -10.6; 38 -10.8; 40 -10.9; 43 -11.0; 45 -11.0; 48 -11.0; 50 -11.0; 53 -10.9; 56 -10.9; 59 -10.9; 63 -10.9; 66 -10.9; 70 -10.9; 74 -11.0; 78 -11.0; 83 -11.0; 87 -11.0; 92 -10.9; 97 -10.7; 103 -10.4; 109 -10.2; 115 -9.9; 121 -9.7; 128 -9.4; 136 -9.1; 143 -8.9; 151 -8.7; 160 -8.3; 169 -7.8; 178 -7.4; 188 -7.0; 199 -6.7; 210 -6.3; 222 -5.9; 235 -5.5; 248 -5.0; 262 -4.7; 277 -4.5; 292 -4.4; 309 -4.3; 326 -4.4; 345 -4.9; 364 -5.6; 385 -6.2; 406 -6.8; 429 -7.5; 453 -8.2; 479 -8.9; 506 -9.5; 534 -10.0; 565 -10.3; 596 -10.5; 630 -10.6; 665 -10.6; 703 -10.5; 743 -10.3; 784 -10.1; 829 -9.9; 875 -9.8; 924 -9.7; 977 -9.6; 1032 -9.5; 1090 -9.4; 1151 -9.0; 1216 -8.5; 1284 -7.9; 1357 -7.2; 1433 -6.6; 1514 -6.0; 1599 -5.5; 1689 -4.7; 1784 -4.0; 1885 -3.3; 1991 -2.7; 2103 -2.4; 2221 -2.2; 2347 -2.1; 2479 -2.5; 2618 -3.1; 2766 -3.5; 2921 -3.9; 3086 -4.1; 3260 -4.0; 3443 -3.3; 3637 -2.5; 3842 -1.8; 4058 -0.8; 4287 -0.2; 4528 -0.6; 4783 -1.9; 5052 -3.3; 5337 -5.2; 5637 -6.6; 5955 -7.1; 6290 -7.8; 6644 -8.5; 7018 -7.6; 7414 -6.0; 7831 -5.2; 8272 -4.8; 8738 -4.5; 9230 -4.1; 9749 -3.6; 10298 -3.2; 10878 -3.3; 11490 -3.4; 12137 -3.6; 12821 -3.8; 13543 -4.1; 14305 -4.5; 15110 -5.0; 15961 -5.6; 16860 -6.2; 17809 -6.9; 18812 -7.6; 19871 -8.4