GraphicEQ: 20 -11.8; 21 -12.0; 22 -12.3; 23 -12.5; 24 -12.7; 26 -13.1; 27 -13.3; 29 -13.6; 30 -13.8; 32 -14.0; 34 -14.2; 36 -14.4; 38 -14.5; 40 -14.6; 43 -14.7; 45 -14.7; 48 -14.6; 50 -14.6; 53 -14.5; 56 -14.4; 59 -14.3; 63 -14.2; 66 -14.1; 70 -14.1; 74 -14.0; 78 -13.9; 83 -13.7; 87 -13.5; 92 -13.2; 97 -12.8; 103 -12.3; 109 -11.9; 115 -11.4; 121 -10.9; 128 -10.5; 136 -10.0; 143 -9.6; 151 -9.2; 160 -8.7; 169 -8.2; 178 -7.7; 188 -7.2; 199 -6.8; 210 -6.4; 222 -6.0; 235 -5.4; 248 -5.0; 262 -4.6; 277 -4.4; 292 -4.3; 309 -4.2; 326 -4.3; 345 -4.8; 364 -5.4; 385 -6.1; 406 -6.7; 429 -7.3; 453 -8.0; 479 -8.7; 506 -9.3; 534 -9.8; 565 -10.2; 596 -10.3; 630 -10.4; 665 -10.4; 703 -10.3; 743 -10.1; 784 -9.9; 829 -9.7; 875 -9.6; 924 -9.5; 977 -9.4; 1032 -9.3; 1090 -9.2; 1151 -8.9; 1216 -8.4; 1284 -7.7; 1357 -7.0; 1433 -6.4; 1514 -5.8; 1599 -5.3; 1689 -4.6; 1784 -3.8; 1885 -3.1; 1991 -2.5; 2103 -2.2; 2221 -2.0; 2347 -2.0; 2479 -2.3; 2618 -2.9; 2766 -3.3; 2921 -3.7; 3086 -3.9; 3260 -3.8; 3443 -3.1; 3637 -2.4; 3842 -1.6; 4058 -0.7; 4287 -0.2; 4528 -0.5; 4783 -1.7; 5052 -3.1; 5337 -5.0; 5637 -6.4; 5955 -6.9; 6290 -7.6; 6644 -8.3; 7018 -7.5; 7414 -5.8; 7831 -5.0; 8272 -4.6; 8738 -4.3; 9230 -3.9; 9749 -3.4; 10298 -3.1; 10878 -3.1; 11490 -3.2; 12137 -3.4; 12821 -3.6; 13543 -4.0; 14305 -4.4; 15110 -4.8; 15961 -5.4; 16860 -6.0; 17809 -6.7; 18812 -7.4; 19871 -8.3